digraph Tree {
node [shape=box] ;
0 [label="X[43] <= -0.072\ngini = 0.067\nsamples = 2754\nvalue = [2659, 95]"] ;
1 [label="X[48] <= 2.381\ngini = 0.464\nsamples = 131\nvalue = [83, 48]"] ;
0 -> 1 [labeldistance=2.5, labelangle=45, headlabel="True"] ;
2 [label="X[80] <= -0.332\ngini = 0.219\nsamples = 56\nvalue = [49, 7]"] ;
1 -> 2 ;
3 [label="X[1] <= -0.106\ngini = 0.5\nsamples = 8\nvalue = [4, 4]"] ;
2 -> 3 ;
4 [label="gini = 0.0\nsamples = 4\nvalue = [4, 0]"] ;
3 -> 4 ;
5 [label="gini = 0.0\nsamples = 4\nvalue = [0, 4]"] ;
3 -> 5 ;
6 [label="X[21] <= 8.313\ngini = 0.117\nsamples = 48\nvalue = [45, 3]"] ;
2 -> 6 ;
7 [label="gini = 0.0\nsamples = 41\nvalue = [41, 0]"] ;
6 -> 7 ;
8 [label="X[48] <= 1.241\ngini = 0.49\nsamples = 7\nvalue = [4, 3]"] ;
6 -> 8 ;
9 [label="gini = 0.0\nsamples = 4\nvalue = [4, 0]"] ;
8 -> 9 ;
10 [label="gini = 0.0\nsamples = 3\nvalue = [0, 3]"] ;
8 -> 10 ;
11 [label="X[60] <= 1.436\ngini = 0.496\nsamples = 75\nvalue = [34, 41]"] ;
1 -> 11 ;
12 [label="X[3] <= 0.436\ngini = 0.393\nsamples = 26\nvalue = [19, 7]"] ;
11 -> 12 ;
13 [label="X[12] <= 0.075\ngini = 0.245\nsamples = 7\nvalue = [1, 6]"] ;
12 -> 13 ;
14 [label="gini = 0.0\nsamples = 1\nvalue = [1, 0]"] ;
13 -> 14 ;
15 [label="gini = 0.0\nsamples = 6\nvalue = [0, 6]"] ;
13 -> 15 ;
16 [label="X[47] <= 619.305\ngini = 0.1\nsamples = 19\nvalue = [18, 1]"] ;
12 -> 16 ;
17 [label="gini = 0.0\nsamples = 1\nvalue = [0, 1]"] ;
16 -> 17 ;
18 [label="gini = 0.0\nsamples = 18\nvalue = [18, 0]"] ;
16 -> 18 ;
19 [label="X[8] <= -0.214\ngini = 0.425\nsamples = 49\nvalue = [15, 34]"] ;
11 -> 19 ;
20 [label="X[44] <= -1.181\ngini = 0.498\nsamples = 32\nvalue = [15, 17]"] ;
19 -> 20 ;
21 [label="X[62] <= -0.832\ngini = 0.18\nsamples = 10\nvalue = [1, 9]"] ;
20 -> 21 ;
22 [label="gini = 0.0\nsamples = 1\nvalue = [1, 0]"] ;
21 -> 22 ;
23 [label="gini = 0.0\nsamples = 9\nvalue = [0, 9]"] ;
21 -> 23 ;
24 [label="X[79] <= 19.5\ngini = 0.463\nsamples = 22\nvalue = [14, 8]"] ;
20 -> 24 ;
25 [label="X[39] <= 0.193\ngini = 0.42\nsamples = 10\nvalue = [3, 7]"] ;
24 -> 25 ;
26 [label="X[35] <= -0.118\ngini = 0.375\nsamples = 4\nvalue = [3, 1]"] ;
25 -> 26 ;
27 [label="gini = 0.0\nsamples = 1\nvalue = [0, 1]"] ;
26 -> 27 ;
28 [label="gini = 0.0\nsamples = 3\nvalue = [3, 0]"] ;
26 -> 28 ;
29 [label="gini = 0.0\nsamples = 6\nvalue = [0, 6]"] ;
25 -> 29 ;
30 [label="X[2] <= 0.923\ngini = 0.153\nsamples = 12\nvalue = [11, 1]"] ;
24 -> 30 ;
31 [label="gini = 0.0\nsamples = 11\nvalue = [11, 0]"] ;
30 -> 31 ;
32 [label="gini = 0.0\nsamples = 1\nvalue = [0, 1]"] ;
30 -> 32 ;
33 [label="gini = 0.0\nsamples = 17\nvalue = [0, 17]"] ;
19 -> 33 ;
34 [label="X[45] <= 0.026\ngini = 0.035\nsamples = 2623\nvalue = [2576, 47]"] ;
0 -> 34 [labeldistance=2.5, labelangle=-45, headlabel="False"] ;
35 [label="X[13] <= 2.999\ngini = 0.208\nsamples = 220\nvalue = [194, 26]"] ;
34 -> 35 ;
36 [label="gini = 0.0\nsamples = 88\nvalue = [88, 0]"] ;
35 -> 36 ;
37 [label="X[9] <= 0.006\ngini = 0.316\nsamples = 132\nvalue = [106, 26]"] ;
35 -> 37 ;
38 [label="X[56] <= 0.203\ngini = 0.426\nsamples = 65\nvalue = [45, 20]"] ;
37 -> 38 ;
39 [label="X[10] <= 0.903\ngini = 0.338\nsamples = 51\nvalue = [40, 11]"] ;
38 -> 39 ;
40 [label="X[80] <= -0.476\ngini = 0.231\nsamples = 45\nvalue = [39, 6]"] ;
39 -> 40 ;
41 [label="gini = 0.0\nsamples = 2\nvalue = [0, 2]"] ;
40 -> 41 ;
42 [label="X[24] <= -119.455\ngini = 0.169\nsamples = 43\nvalue = [39, 4]"] ;
40 -> 42 ;
43 [label="gini = 0.0\nsamples = 1\nvalue = [0, 1]"] ;
42 -> 43 ;
44 [label="X[11] <= -10.444\ngini = 0.133\nsamples = 42\nvalue = [39, 3]"] ;
42 -> 44 ;
45 [label="gini = 0.0\nsamples = 1\nvalue = [0, 1]"] ;
44 -> 45 ;
46 [label="X[59] <= 0.562\ngini = 0.093\nsamples = 41\nvalue = [39, 2]"] ;
44 -> 46 ;
47 [label="X[4] <= 0.109\ngini = 0.049\nsamples = 40\nvalue = [39, 1]"] ;
46 -> 47 ;
48 [label="gini = 0.0\nsamples = 38\nvalue = [38, 0]"] ;
47 -> 48 ;
49 [label="X[20] <= 1.363\ngini = 0.5\nsamples = 2\nvalue = [1, 1]"] ;
47 -> 49 ;
50 [label="gini = 0.0\nsamples = 1\nvalue = [0, 1]"] ;
49 -> 50 ;
51 [label="gini = 0.0\nsamples = 1\nvalue = [1, 0]"] ;
49 -> 51 ;
52 [label="gini = 0.0\nsamples = 1\nvalue = [0, 1]"] ;
46 -> 52 ;
53 [label="X[68] <= 7.537\ngini = 0.278\nsamples = 6\nvalue = [1, 5]"] ;
39 -> 53 ;
54 [label="gini = 0.0\nsamples = 5\nvalue = [0, 5]"] ;
53 -> 54 ;
55 [label="gini = 0.0\nsamples = 1\nvalue = [1, 0]"] ;
53 -> 55 ;
56 [label="X[69] <= 15.4\ngini = 0.459\nsamples = 14\nvalue = [5, 9]"] ;
38 -> 56 ;
57 [label="gini = 0.0\nsamples = 7\nvalue = [0, 7]"] ;
56 -> 57 ;
58 [label="X[42] <= 0.51\ngini = 0.408\nsamples = 7\nvalue = [5, 2]"] ;
56 -> 58 ;
59 [label="gini = 0.0\nsamples = 2\nvalue = [0, 2]"] ;
58 -> 59 ;
60 [label="gini = 0.0\nsamples = 5\nvalue = [5, 0]"] ;
58 -> 60 ;
61 [label="X[69] <= 11.712\ngini = 0.163\nsamples = 67\nvalue = [61, 6]"] ;
37 -> 61 ;
62 [label="X[38] <= -0.076\ngini = 0.463\nsamples = 11\nvalue = [7, 4]"] ;
61 -> 62 ;
63 [label="gini = 0.0\nsamples = 5\nvalue = [5, 0]"] ;
62 -> 63 ;
64 [label="X[52] <= 0.119\ngini = 0.444\nsamples = 6\nvalue = [2, 4]"] ;
62 -> 64 ;
65 [label="gini = 0.0\nsamples = 4\nvalue = [0, 4]"] ;
64 -> 65 ;
66 [label="gini = 0.0\nsamples = 2\nvalue = [2, 0]"] ;
64 -> 66 ;
67 [label="X[34] <= 337.39\ngini = 0.069\nsamples = 56\nvalue = [54, 2]"] ;
61 -> 67 ;
68 [label="X[4] <= -0.016\ngini = 0.036\nsamples = 55\nvalue = [54, 1]"] ;
67 -> 68 ;
69 [label="X[48] <= 5.166\ngini = 0.5\nsamples = 2\nvalue = [1, 1]"] ;
68 -> 69 ;
70 [label="gini = 0.0\nsamples = 1\nvalue = [0, 1]"] ;
69 -> 70 ;
71 [label="gini = 0.0\nsamples = 1\nvalue = [1, 0]"] ;
69 -> 71 ;
72 [label="gini = 0.0\nsamples = 53\nvalue = [53, 0]"] ;
68 -> 72 ;
73 [label="gini = 0.0\nsamples = 1\nvalue = [0, 1]"] ;
67 -> 73 ;
74 [label="X[52] <= -0.019\ngini = 0.017\nsamples = 2403\nvalue = [2382, 21]"] ;
34 -> 74 ;
75 [label="gini = 0.0\nsamples = 2\nvalue = [0, 2]"] ;
74 -> 75 ;
76 [label="X[35] <= 0.075\ngini = 0.016\nsamples = 2401\nvalue = [2382, 19]"] ;
74 -> 76 ;
77 [label="X[72] <= 35.625\ngini = 0.086\nsamples = 356\nvalue = [340, 16]"] ;
76 -> 77 ;
78 [label="X[27] <= -0.348\ngini = 0.044\nsamples = 308\nvalue = [301, 7]"] ;
77 -> 78 ;
79 [label="X[15] <= 0.068\ngini = 0.5\nsamples = 2\nvalue = [1, 1]"] ;
78 -> 79 ;
80 [label="gini = 0.0\nsamples = 1\nvalue = [1, 0]"] ;
79 -> 80 ;
81 [label="gini = 0.0\nsamples = 1\nvalue = [0, 1]"] ;
79 -> 81 ;
82 [label="X[40] <= 12.447\ngini = 0.038\nsamples = 306\nvalue = [300, 6]"] ;
78 -> 82 ;
83 [label="X[59] <= 0.328\ngini = 0.021\nsamples = 289\nvalue = [286, 3]"] ;
82 -> 83 ;
84 [label="X[41] <= 5.382\ngini = 0.014\nsamples = 285\nvalue = [283, 2]"] ;
83 -> 84 ;
85 [label="X[66] <= 13.2\ngini = 0.007\nsamples = 277\nvalue = [276, 1]"] ;
84 -> 85 ;
86 [label="gini = 0.0\nsamples = 258\nvalue = [258, 0]"] ;
85 -> 86 ;
87 [label="X[1] <= 0.056\ngini = 0.1\nsamples = 19\nvalue = [18, 1]"] ;
85 -> 87 ;
88 [label="gini = 0.0\nsamples = 18\nvalue = [18, 0]"] ;
87 -> 88 ;
89 [label="gini = 0.0\nsamples = 1\nvalue = [0, 1]"] ;
87 -> 89 ;
90 [label="X[77] <= 12.875\ngini = 0.219\nsamples = 8\nvalue = [7, 1]"] ;
84 -> 90 ;
91 [label="gini = 0.0\nsamples = 1\nvalue = [0, 1]"] ;
90 -> 91 ;
92 [label="gini = 0.0\nsamples = 7\nvalue = [7, 0]"] ;
90 -> 92 ;
93 [label="X[10] <= 0.736\ngini = 0.375\nsamples = 4\nvalue = [3, 1]"] ;
83 -> 93 ;
94 [label="gini = 0.0\nsamples = 1\nvalue = [0, 1]"] ;
93 -> 94 ;
95 [label="gini = 0.0\nsamples = 3\nvalue = [3, 0]"] ;
93 -> 95 ;
96 [label="X[37] <= 0.042\ngini = 0.291\nsamples = 17\nvalue = [14, 3]"] ;
82 -> 96 ;
97 [label="X[0] <= 1.332\ngini = 0.124\nsamples = 15\nvalue = [14, 1]"] ;
96 -> 97 ;
98 [label="gini = 0.0\nsamples = 14\nvalue = [14, 0]"] ;
97 -> 98 ;
99 [label="gini = 0.0\nsamples = 1\nvalue = [0, 1]"] ;
97 -> 99 ;
100 [label="gini = 0.0\nsamples = 2\nvalue = [0, 2]"] ;
96 -> 100 ;
101 [label="X[80] <= 0.512\ngini = 0.305\nsamples = 48\nvalue = [39, 9]"] ;
77 -> 101 ;
102 [label="X[52] <= 0.067\ngini = 0.176\nsamples = 41\nvalue = [37, 4]"] ;
101 -> 102 ;
103 [label="X[70] <= 33.803\ngini = 0.5\nsamples = 6\nvalue = [3, 3]"] ;
102 -> 103 ;
104 [label="X[25] <= 13.659\ngini = 0.375\nsamples = 4\nvalue = [1, 3]"] ;
103 -> 104 ;
105 [label="gini = 0.0\nsamples = 3\nvalue = [0, 3]"] ;
104 -> 105 ;
106 [label="gini = 0.0\nsamples = 1\nvalue = [1, 0]"] ;
104 -> 106 ;
107 [label="gini = 0.0\nsamples = 2\nvalue = [2, 0]"] ;
103 -> 107 ;
108 [label="X[1] <= 0.061\ngini = 0.056\nsamples = 35\nvalue = [34, 1]"] ;
102 -> 108 ;
109 [label="gini = 0.0\nsamples = 33\nvalue = [33, 0]"] ;
108 -> 109 ;
110 [label="X[22] <= 0.155\ngini = 0.5\nsamples = 2\nvalue = [1, 1]"] ;
108 -> 110 ;
111 [label="gini = 0.0\nsamples = 1\nvalue = [1, 0]"] ;
110 -> 111 ;
112 [label="gini = 0.0\nsamples = 1\nvalue = [0, 1]"] ;
110 -> 112 ;
113 [label="X[53] <= 548.185\ngini = 0.408\nsamples = 7\nvalue = [2, 5]"] ;
101 -> 113 ;
114 [label="gini = 0.0\nsamples = 5\nvalue = [0, 5]"] ;
113 -> 114 ;
115 [label="gini = 0.0\nsamples = 2\nvalue = [2, 0]"] ;
113 -> 115 ;
116 [label="X[15] <= 0.049\ngini = 0.003\nsamples = 2045\nvalue = [2042, 3]"] ;
76 -> 116 ;
117 [label="X[52] <= 0.325\ngini = 0.06\nsamples = 65\nvalue = [63, 2]"] ;
116 -> 117 ;
118 [label="X[57] <= -0.09\ngini = 0.031\nsamples = 64\nvalue = [63, 1]"] ;
117 -> 118 ;
119 [label="X[3] <= 2.919\ngini = 0.5\nsamples = 2\nvalue = [1, 1]"] ;
118 -> 119 ;
120 [label="gini = 0.0\nsamples = 1\nvalue = [0, 1]"] ;
119 -> 120 ;
121 [label="gini = 0.0\nsamples = 1\nvalue = [1, 0]"] ;
119 -> 121 ;
122 [label="gini = 0.0\nsamples = 62\nvalue = [62, 0]"] ;
118 -> 122 ;
123 [label="gini = 0.0\nsamples = 1\nvalue = [0, 1]"] ;
117 -> 123 ;
124 [label="X[26] <= -156.225\ngini = 0.001\nsamples = 1980\nvalue = [1979, 1]"] ;
116 -> 124 ;
125 [label="X[26] <= -162.245\ngini = 0.091\nsamples = 21\nvalue = [20, 1]"] ;
124 -> 125 ;
126 [label="gini = 0.0\nsamples = 20\nvalue = [20, 0]"] ;
125 -> 126 ;
127 [label="gini = 0.0\nsamples = 1\nvalue = [0, 1]"] ;
125 -> 127 ;
128 [label="gini = 0.0\nsamples = 1959\nvalue = [1959, 0]"] ;
124 -> 128 ;
}
